50 64
38 0.2972946 -0.18814102 -0.0375025 -0.08732112 0.118425354 -0.114459276 0.12989202 0.38766426 -0.6110398 -0.056120418 0.14411294 -0.008400748 -0.19461206 0.3815441 0.24366222 0.40958035 0.2490347 -0.16490541 -0.15069665 0.12256687 0.49495217 -0.17186946 0.63025767 -0.13870056 0.12564659 0.0787936 -0.17443624 -0.19486146 -0.3311937 -0.2868118 -0.117375344 0.16341908 -0.19570462 -0.4077755 -0.4213193 -0.3109448 0.33259377 -0.074607335 0.1369942 -0.11880872 -0.07547636 0.2760706 0.33497098 -0.33424285 -0.40037903 -0.013421673 -0.032291006 -0.06390109 0.33226526 0.24659313 -0.015235413 -0.27601343 0.00053786737 0.30483285 0.30219132 0.71143377 0.32653713 -0.1830073 -0.09699703 0.018813115 0.3777964 -0.04230712 -0.439405 0.08327376
22 0.41945946 0.05079079 0.22049688 -0.009418833 -0.0856176 -0.41887215 0.7925136 0.35051456 -0.18600957 -0.8447194 0.20420437 0.10075804 0.08530518 -0.1284702 -0.17983733 -0.17435314 0.109466024 -0.11667662 -0.059514377 0.99231213 -0.072287515 0.40373933 0.5551359 -0.4327435 -0.2568532 0.710689 -0.53278995 0.059208985 -0.043857705 -0.37627023 -0.15581907 0.20439704 -0.79074234 -0.10225235 -0.37051263 -0.11928759 -0.08182092 -0.07467672 0.38194567 0.11452881 0.5196837 -0.2660858 -0.023912959 -0.20077817 0.33276808 -0.09744788 0.00092367554 0.010104425 0.14702421 0.03369814 -0.7020458 0.35816407 -0.09101398 0.7953807 0.14341852 0.34203705 0.2665112 -0.47316042 0.30186027 -0.5838938 0.08546564 -0.2180346 -0.25029728 0.34047925
8 0.65270865 -0.2761323 0.6096372 -0.13857543 0.24639016 -0.47728586 0.11491311 0.5646008 0.0050945883 -0.04602828 0.33558226 -0.10153283 0.22085914 0.3618499 0.4445816 0.523911 -0.20243938 -0.40831318 0.17509009 0.40914345 0.40665284 0.22565389 -0.06520537 -0.24589756 -0.44241998 0.6948928 -0.37154773 -0.14640701 0.24247514 0.33358705 -0.4749293 0.2516476 -0.32238206 -0.27157775 0.123895444 0.2243419 -0.17207953 0.61379594 0.23495945 0.11286986 -0.12161485 0.40221098 0.07208964 -0.12009973 0.5514311 -0.1023925 -0.13509692 0.0072373957 0.0412734 0.49694258 0.04221418 -0.20097779 0.16562721 0.089047216 0.13927753 0.26883554 0.29236522 0.2547198 -0.14695032 -0.17462124 -0.09163423 -0.44153598 -0.06027461 -0.007056785
0 0.59644854 -0.2826893 0.47311905 0.26305214 0.29319945 -0.24109475 0.12208623 0.06598451 -0.43605635 -0.46526676 -0.36485848 -0.5017086 -0.02024521 0.25336212 0.11121083 0.3113868 -0.5716634 0.29268453 -0.63052285 0.48470384 0.9290661 0.18350334 1.0276219 -0.438806 0.3475201 0.64847547 -0.13096294 -0.06908482 -0.6093849 -0.28204718 -0.38815734 -0.19264975 -0.06352517 -0.80669135 -0.039397612 -0.09548482 -0.62393224 0.689672 0.31258854 -0.24640565 -0.3703358 0.2872061 -0.5505083 0.16624239 0.12991084 0.4085927 0.27261332 0.18441914 -0.25065228 -0.06640137 -0.5779877 0.4728504 0.4703974 0.7295063 0.108249016 0.24428795 -0.2789242 -0.13267551 -0.398298 -0.29705513 0.0953193 -0.24957009 -0.05278165 -0.075574815
46 0.31361407 -0.15998697 -0.087128736 -0.089022614 0.15605083 -0.09355246 0.13649106 0.3878085 -0.61904943 -0.05705053 0.15794593 -0.027844416 -0.16033746 0.3575977 0.28559116 0.43216646 0.21255557 -0.17102173 -0.18411753 0.1527764 0.50112706 -0.18282582 0.613246 -0.10212932 0.10960972 0.026355125 -0.1605103 -0.19479291 -0.31989792 -0.25692305 -0.11668419 0.14890087 -0.16788684 -0.43161735 -0.42392686 -0.29970095 0.359894 -0.045549154 0.18391195 -0.0608522 -0.030576125 0.2653202 0.35372862 -0.34135935 -0.39799285 0.05696974 0.0036618374 -0.042683385 0.345036 0.2018031 -0.009131675 -0.23728988 0.019314924 0.27893704 0.33609444 0.7247281 0.35793087 -0.17874885 -0.032479484 -0.029880032 0.40400848 -0.047940727 -0.4059891 0.09498073
20 0.5804099 -0.19673026 0.5848672 0.23033425 0.16632693 -0.21235016 0.18192987 0.100390196 -0.36911803 -0.48647133 -0.3623001 -0.5404895 -0.10425758 0.24284813 0.16623431 0.35916117 -0.47903466 0.22865206 -0.6887477 0.5531814 0.8680044 0.13033465 1.0337619 -0.42479476 0.35885048 0.56607234 -0.002059554 -0.046361495 -0.53011197 -0.21786876 -0.32351303 -0.13100637 -0.2562263 -0.8664109 -0.10824852 -0.12018363 -0.61640275 0.754507 0.30872363 -0.21439217 -0.32264313 0.38133648 -0.43001807 0.20086545 0.19879296 0.40170848 0.2739871 0.23804198 -0.21229973 -0.21899359 -0.56243145 0.39108434 0.41271308 0.7703266 0.14579463 0.2717685 -0.3434839 -0.0019137219 -0.46536618 -0.25969917 0.06086388 -0.10408803 0.027484585 -0.02444023
13 0.19219899 0.01259057 0.85161096 0.22828935 -0.07231249 -0.75572383 -0.2444369 -0.25011045 -0.1779202 -0.6852338 -0.092027895 0.27810925 -0.2206045 -0.26767206 0.47660205 -0.042185064 -0.4365615 -0.4257908 -0.6489136 0.067185655 0.114210404 0.097998925 0.5123178 -0.11671827 0.16722918 0.65126705 -0.3898437 0.2663113 0.029139379 -0.55979234 -0.4956161 0.33809656 -0.07858793 -0.032519147 0.29972354 -0.13786826 0.69342846 0.4163871 0.23992041 0.7680741 0.06735856 0.20100535 0.32701832 0.20827183 -0.04219676 0.16514161 0.32578284 -0.17918557 0.11150512 0.048039835 -0.20508057 -0.06178993 0.2473882 0.43785298 0.019590529 0.85322076 0.10453212 -0.32114357 -0.45350012 0.14933385 0.17144741 -0.6772717 0.04487421 0.31047505
10 0.66803914 -0.26925468 0.5623058 -0.10133357 0.27331358 -0.52472115 0.06287802 0.41691947 -0.096692674 -0.052818056 0.30442393 -0.1386016 0.37388378 0.30319092 0.4592498 0.46723524 -0.23475811 -0.39030483 0.17527856 0.5489434 0.4187584 0.19849363 -0.07744494 -0.26184267 -0.48836684 0.6185613 -0.41964057 -0.093452334 0.159162 0.3210542 -0.4468375 0.19643815 -0.37331897 -0.30190378 0.1767995 0.19992001 -0.18713458 0.5428811 0.28687882 0.1801427 -0.2073822 0.44948435 0.09261481 -0.15807405 0.49177524 -0.15279199 -0.10189926 -0.035364367 0.082742 0.5599077 0.05198883 -0.021793792 0.14811511 -0.01286087 0.07736282 0.360853 0.29849488 0.32708094 -0.11675755 -0.10130644 -0.15760703 -0.46745622 -0.18876529 0.005496168
45 0.25332522 -0.27617654 -0.05896721 -0.16630718 0.06371814 -0.18159045 0.15411004 0.30953482 -0.6981834 -0.07467946 0.19505359 0.023276392 -0.27887848 0.33712083 0.283788 0.36562255 0.22796048 -0.12323874 -0.12577069 0.12836903 0.5794115 -0.1652707 0.66161144 -0.10144253 0.19864662 0.089182734 -0.16456105 -0.19877753 -0.20309687 -0.25763693 -0.18552321 0.19023052 -0.18316722 -0.4080633 -0.47118855 -0.24853237 0.31002924 -0.057958115 0.13500498 -0.14482288 -0.013821297 0.28742224 0.28498864 -0.36183113 -0.30564415 -0.028090151 -0.043180466 -0.10156734 0.39565918 0.2114086 0.05057429 -0.27232733 0.04252931 0.314825 0.22653481 0.674945 0.29858804 -0.16517223 -0.08365299 0.03430313 0.40359938 0.0006295648 -0.43810153 0.120199084
15 0.18994386 0.04519551 0.82958776 0.1910659 0.0050067552 -0.6418631 -0.21292259 -0.3527336 -0.17412362 -0.72021425 -0.21184461 0.31048122 -0.26588675 -0.22335261 0.444158 0.032416247 -0.45367998 -0.45601824 -0.5459643 0.07734658 0.09212046 -0.0035693783 0.58324003 -0.18331987 0.2019998 0.60206944 -0.3893159 0.1651208 0.028705882 -0.5824005 -0.42000857 0.41805816 -0.10929576 -0.05895284 0.35424706 -0.1121763 0.74474025 0.54102933 0.13429527 0.71907413 0.18904561 0.17250785 0.28974995 0.117110394 0.0067791194 0.1490198 0.39671606 -0.24600072 0.045329038 0.12542316 -0.23522718 -0.006087661 0.23724563 0.40080708 0.046936274 0.89339876 0.17659473 -0.22494681 -0.43578142 0.09079298 0.12960629 -0.7179468 0.10040589 0.31766024
14 0.31516474 -0.09575848 0.89709336 0.14792296 -0.01789575 -0.59552425 -0.21876924 -0.32413873 -0.15407221 -0.6214444 -0.15357952 0.17508462 -0.28558356 -0.19837722 0.41544515 -0.015045362 -0.38006616 -0.5187433 -0.6706537 -0.002020773 0.07084493 0.13146551 0.5522812 -0.062085472 0.12963952 0.66646755 -0.40612957 0.17477188 0.0023375824 -0.5903147 -0.48656106 0.37321937 -0.09482676 -0.007720312 0.29343233 -0.18705471 0.7056032 0.482987 0.2580477 0.7773106 0.083173595 0.10452433 0.28478715 0.20395808 0.024200452 0.10188094 0.37547156 -0.2611982 0.007430354 0.12350105 -0.2663384 -0.05022407 0.21727262 0.41343015 0.048629772 0.8436392 0.177981 -0.3508388 -0.41322768 0.14445865 0.2054567 -0.65772194 0.11182145 0.3959337
3 0.47871184 0.0993914 0.2652924 -0.10461921 -0.03640633 -0.47311866 0.81164736 0.28076217 -0.19565576 -0.7838775 0.18838271 0.109716944 0.1321991 -0.15305918 -0.17516074 -0.12360166 0.12709792 -0.080904044 -0.09539177 0.9662846 -0.043871462 0.47331214 0.49904314 -0.3675085 -0.24593037 0.70361614 -0.5774665 0.06453663 -0.06820194 -0.37522283 -0.2789357 0.17888865 -0.7354362 -0.053558085 -0.4437716 -0.21781918 -0.03789855 -0.09543077 0.3015753 0.07909448 0.5616912 -0.25950694 -0.066763185 -0.2526713 0.36075112 0.0044394443 -0.052741565 0.053994544 0.26173463 -0.057190213 -0.7550744 0.3890556 -0.16766636 0.7404274 0.1332425 0.36640194 0.2596374 -0.40507263 0.24278657 -0.54412043 0.02931959 -0.21448229 -0.22180083 0.33743635
25 0.43954134 0.025640797 0.23504563 -0.049000725 0.012316504 -0.4290457 0.782245 0.28810337 -0.1627307 -0.8230417 0.20124207 0.069194354 0.031042138 -0.18462361 -0.21855915 -0.092672795 0.16240777 -0.17635244 -0.03477229 1.0764761 0.017837167 0.38229758 0.53436923 -0.4264371 -0.21911469 0.7160001 -0.53734034 0.039942622 -0.09423384 -0.42283052 -0.17433733 0.12896115 -0.7685407 0.061006386 -0.36952323 -0.18253331 0.032737624 -0.09607147 0.34229475 0.00907735 0.48886636 -0.20336424 0.026584925 -0.27302107 0.37113604 -0.06193763 0.09152673 0.05093857 0.15373237 -0.03841366 -0.75616527 0.29572758 -0.11951553 0.79608935 0.20139992 0.27565157 0.2513054 -0.40950087 0.26097152 -0.6263831 0.014793237 -0.3079366 -0.14215754 0.23540995
28 0.48417738 0.10824703 0.09905933 0.6386827 0.197159 -0.38919657 0.15227494 -0.06760567 -0.4420079 0.10481967 0.33282164 -0.22605707 0.38704783 -0.5309956 0.61275357 0.4411603 0.3526483 -0.063345164 -0.03358706 0.5788121 0.08385625 0.64059085 0.5769171 -0.18198034 -0.009666706 0.5283152 -0.31466475 -0.681643 -0.6483292 -0.7084827 -0.37773103 0.32546154 -0.66776 -0.19879732 -0.41683015 0.6436027 0.3646959 0.6788564 0.3788552 0.09442001 0.39753446 0.21960126 -0.105121896 -0.30423462 -0.10487705 -0.06013543 -0.5532047 -0.098109156 0.110184535 0.48330495 -0.18831332 0.12933403 0.996935 0.8449568 0.33552936 0.2434238 -0.27090496 0.059455413 -0.64507294 0.27196896 0.35425648 -0.22158852 0.64575195 0.6020121
16 0.31200084 0.013101732 0.8385057 0.0797434 -0.0922636 -0.6530665 -0.30313513 -0.18546338 -0.17288803 -0.67174804 -0.20234232 0.28602076 -0.2746841 -0.26449433 0.41700828 0.00070485537 -0.33961415 -0.45554185 -0.6707378 0.05014319 0.13516062 0.016471762 0.5815518 -0.16112837 0.17790003 0.6354607 -0.3530876 0.16863422 0.15728466 -0.6414558 -0.5606388 0.4399756 -0.023069305 -0.08142688 0.28957528 -0.055158474 0.772713 0.4645315 0.12879367 0.74910516 0.044557415 0.15220252 0.31173453 0.20300156 0.035178963 0.22332746 0.2568741 -0.34515706 0.05412181 0.14113586 -0.23429286 0.05968715 0.23180753 0.4698891 0.03354203 0.84904194 0.14470941 -0.23432964 -0.33494663 0.008163061 0.1282182 -0.5967138 0.1324626 0.36509636
5 0.66440254 -0.17351359 0.6317036 -0.09987513 0.25299698 -0.5180758 0.09953861 0.41315135 -0.091008686 -0.08054562 0.37516588 -0.11233244 0.25948417 0.24840505 0.54113567 0.45778534 -0.15533626 -0.43188047 0.20001057 0.5583946 0.432673 0.14556672 -0.061470747 -0.20721394 -0.4236571 0.57858056 -0.41627273 -0.07728992 0.21506247 0.38625574 -0.5327626 0.2832489 -0.30933827 -0.24610546 0.16280867 0.11239546 -0.3328751 0.6187464 0.3467236 0.16505374 -0.15428069 0.46212298 0.15625675 -0.23763125 0.40515488 -0.15228507 -0.11699201 0.095388494 0.020623999 0.44226357 0.1298029 -0.11690368 0.24749623 0.02156573 0.16829295 0.30003712 0.31497186 0.27182192 -0.08733364 -0.20361017 -0.13442232 -0.4707669 -0.056514766 -0.063126184
31 0.6233087 -0.20789208 0.4701967 -0.14024481 0.17744003 -0.5039901 0.08071685 0.38194597 -0.060863458 -0.035402045 0.37563413 -0.13542546 0.2713909 0.3281728 0.38901508 0.54927987 -0.2866213 -0.41975674 0.13643299 0.5328157 0.30183873 0.21271217 0.009585968 -0.18221383 -0.4233034 0.63296753 -0.49117705 -0.0906258 0.13268606 0.33627787 -0.53660154 0.23690411 -0.42422286 -0.37370476 0.16531749 0.2545951 -0.27793333 0.53993726 0.33175737 0.23559126 -0.24254833 0.45320207 0.15370141 -0.25779697 0.4683684 -0.06221429 -0.0842858 0.030355904 0.10171834 0.5453875 0.08781934 -0.046459626 0.112511 -0.012746735 0.06592576 0.33414456 0.29356992 0.30511075 -0.09618868 -0.0639322 -0.22864613 -0.47743294 -0.0745139 -0.05385724
39 0.34654865 -0.15461802 0.007171619 -0.09139628 0.014298415 -0.093324095 0.16520347 0.3743249 -0.6601302 -0.046509203 0.16488172 -0.07104456 -0.20787553 0.35652024 0.3596741 0.40534788 0.2226216 -0.21903755 -0.16173916 0.14415938 0.47986433 -0.08326953 0.60754555 -0.0010262089 0.14519167 0.07473198 -0.16098036 -0.12408304 -0.29839057 -0.2805654 -0.111582346 0.12500313 -0.14602524 -0.4604017 -0.46016285 -0.29987258 0.35113212 -0.06118625 0.059178814 -0.10991251 -0.0033795966 0.3267199 0.19320998 -0.40847725 -0.35804558 -0.003466883 0.010572898 0.050056376 0.3328024 0.2912066 -0.015837505 -0.25962695 -0.012425675 0.28232586 0.25589806 0.74204713 0.3241949 -0.24303724 -0.035566192 0.0778409 0.34753332 0.018230028 -0.42508796 0.15064399
40 0.29671767 -0.22549409 -0.048774783 -0.15301059 0.11849966 -0.21661018 0.0947045 0.35265157 -0.69908816 -0.028852036 0.19808051 -0.030655459 -0.23704064 0.39919937 0.22956125 0.4539403 0.21335874 -0.11835078 -0.10362091 0.20399767 0.5605563 -0.1328332 0.59145993 -0.096052155 0.21066082 0.10016789 -0.16755213 -0.18871029 -0.32972655 -0.24495728 -0.112219915 0.15623531 -0.11285086 -0.35183907 -0.3986699 -0.22083037 0.38415447 -0.041298877 0.07666645 -0.023586582 -0.08858188 0.2541783 0.30045968 -0.35367236 -0.3921544 -0.019376354 -0.064156845 -0.058565117 0.33099887 0.23762935 -0.04855683 -0.17371012 -0.05059417 0.32810596 0.2681209 0.6861582 0.36526832 -0.23985076 -0.09931418 0.0024666416 0.41313305 0.03248967 -0.42314562 0.101211786
49 0.29392552 -0.23630221 -0.009851873 -0.14704609 0.08597649 -0.12714948 0.12962674 0.37075093 -0.6264383 -0.004924154 0.091218494 0.016651979 -0.22078198 0.3919716 0.24135801 0.4083859 0.30288124 -0.18145025 -0.07176821 0.11471212 0.50060457 -0.11738503 0.6353074 -0.16584404 0.18316954 0.11406399 -0.21899171 -0.14163345 -0.34023738 -0.28071553 -0.053990114 0.17575015 -0.24862882 -0.36451077 -0.4295778 -0.31857535 0.28277713 -0.088244036 0.07622543 -0.1213513 -0.094316 0.30934525 0.253456 -0.37948284 -0.41758034 -0.032130413 0.020905381 -0.06274269 0.25661907 0.29391268 -0.0683432 -0.2614284 0.014567935 0.30086535 0.23314685 0.7562501 0.28863698 -0.15366739 -0.114884876 0.105456755 0.35208488 -0.08302159 -0.45369297 0.17376068
29 0.35393417 0.050010417 0.045850724 0.7352626 0.20521335 -0.39934155 0.18214817 -0.03305133 -0.4950902 0.07046021 0.23679163 -0.34382114 0.39693528 -0.5633976 0.55576205 0.40969667 0.46579608 0.08261254 -0.042831678 0.6940068 0.07368835 0.7028567 0.507882 -0.17659035 -0.035702012 0.3930056 -0.45458117 -0.6991461 -0.64546037 -0.654171 -0.5068188 0.42373663 -0.61850995 -0.29463136 -0.25550112 0.5834967 0.5366994 0.61177653 0.4164085 0.018633036 0.30847552 0.2095363 0.0468144 -0.15789428 -0.0197767 0.15213427 -0.55876565 -0.14732382 0.08140472 0.5758893 -0.21403182 0.1684769 1.0232329 0.72958994 0.37866348 0.28784063 -0.36706257 0.08188367 -0.59334296 0.2134363 0.27321234 -0.19642189 0.54323137 0.5792303
35 0.34448332 -0.16958867 -0.014845676 -0.06696154 0.09306968 -0.07539145 0.11136172 0.43320328 -0.6376737 0.0059654885 0.063912824 -0.07876938 -0.14937872 0.38013774 0.26732832 0.48219064 0.25007978 -0.18858695 -0.15083681 0.18119544 0.44557306 -0.12275698 0.62151533 -0.053819086 0.14674848 0.09412709 -0.15062128 -0.169497 -0.38873735 -0.25052276 -0.00778904 0.15565659 -0.22648215 -0.38395876 -0.39190394 -0.33801287 0.33571726 -0.08170213 0.08104578 -0.048887927 -0.04917564 0.27284837 0.31743222 -0.32392082 -0.42753235 -0.051454656 0.067777425 0.027487606 0.27575904 0.27809745 -0.052487526 -0.28509295 -0.018392807 0.32669318 0.26131666 0.75410795 0.36983746 -0.18361133 -0.08078612 0.027520286 0.3600541 -0.06432917 -0.40121213 0.120805435
4 0.64794046 -0.24821031 0.579759 -0.15803692 0.09226612 -0.47273028 0.09669265 0.4833978 -0.019709064 -0.050076067 0.34433275 -0.15679513 0.28776786 0.33622903 0.38588795 0.43366 -0.23235567 -0.39225397 0.15629189 0.4870417 0.44684118 0.19124347 -0.062077355 -0.23433653 -0.40174323 0.5451294 -0.49686942 -0.22734502 0.2003354 0.3079242 -0.51174587 0.3045165 -0.3324242 -0.35683277 0.24899349 0.24012057 -0.21480146 0.6695876 0.2416042 0.14249995 -0.099248216 0.34947857 0.12570368 -0.16202655 0.48978734 -0.14914528 -0.15175782 0.07184917 0.103680424 0.5301391 0.047563646 0.020877318 0.19536097 -0.02011584 0.11308481 0.43266886 0.38957068 0.3483494 -0.11701635 -0.14796478 -0.14494373 -0.42646247 -0.086343415 -0.07613292
42 0.29045942 -0.26678297 -0.025434365 -0.21809785 0.13690004 -0.13868618 0.10615384 0.29971978 -0.73096055 -0.05430815 0.18237817 -0.036775544 -0.2253626 0.30662063 0.31108224 0.41777954 0.22773394 -0.21871583 -0.07352745 0.13895358 0.57758844 -0.11422085 0.60954523 -0.13532409 0.20675611 0.083055206 -0.1965853 -0.13779737 -0.2721212 -0.23442875 -0.055428833 0.22894613 -0.18596008 -0.41286892 -0.46530965 -0.22510067 0.3389269 0.0020671578 0.061390985 -0.098947905 0.016423922 0.2618219 0.24459097 -0.38934842 -0.34946772 0.03216024 0.049351458 -0.051366605 0.3367761 0.23740295 -0.036784034 -0.23256676 -0.035903666 0.28106815 0.17807627 0.70524305 0.2997154 -0.16118437 -0.08669791 0.024598658 0.4224486 0.06997848 -0.44936922 0.21441041
27 0.521714 0.0041385046 0.0038238422 0.73444176 0.29760605 -0.43694738 0.0857564 0.0620748 -0.3658934 0.13687734 0.19516373 -0.36572263 0.39783984 -0.594052 0.5335538 0.37212238 0.4687862 0.06334102 -0.055392258 0.7537981 0.17527452 0.60199165 0.590241 -0.10238966 -0.050881036 0.43452477 -0.42357954 -0.64760196 -0.47184217 -0.6565576 -0.4736657 0.4424654 -0.56868964 -0.16386867 -0.3881259 0.5589523 0.41864273 0.5970542 0.47076085 0.21391453 0.30857593 0.1934484 -0.017774684 -0.27992058 -0.11861145 -0.0049892594 -0.52382034 -0.046222344 -0.010149567 0.55925894 -0.2707838 0.052227397 1.0589299 0.8357822 0.2582772 0.31251717 -0.32467136 0.011366305 -0.6209403 0.2710314 0.3111852 -0.10645367 0.6232307 0.59420097
9 0.6139105 -0.21908927 0.60364205 -0.0839852 0.1754987 -0.49408495 0.10700054 0.44971797 -0.089811146 0.013993955 0.3191343 -0.13024728 0.2846099 0.32835665 0.41062 0.4881931 -0.26069406 -0.37072197 0.25740644 0.5039034 0.45365328 0.27276292 -0.02048284 -0.23435552 -0.44756466 0.63520885 -0.41856462 -0.052786633 0.22402994 0.3223417 -0.49224225 0.23405136 -0.37127745 -0.3446452 0.21725637 0.16528405 -0.20454042 0.61663085 0.27096117 0.12647581 -0.11600389 0.39784873 0.12854844 -0.19370502 0.50756204 -0.06589876 -0.16311175 -0.012219783 0.072017446 0.53392404 0.13091208 -0.11389811 0.14041033 0.001920847 0.0949452 0.36702088 0.281845 0.24641255 -0.118775345 -0.17984004 -0.1237576 -0.4662444 -0.06102502 -0.03179621
44 0.2676523 -0.24017242 -0.040162254 -0.08904628 0.08080881 -0.09182389 0.18595545 0.40110636 -0.69041276 -0.011432029 0.15847206 -0.07252591 -0.23026006 0.3186973 0.33661115 0.3842022 0.22399327 -0.24521677 -0.17915262 0.12411654 0.5095652 -0.08634197 0.6038802 -0.11129493 0.19658074 0.10086207 -0.14446226 -0.07365904 -0.2521508 -0.21788552 -0.13707504 0.20838873 -0.19115391 -0.44438294 -0.4956244 -0.2666263 0.3437276 -0.022852914 0.066519745 -0.15404342 -0.020701222 0.2533333 0.2634486 -0.3639108 -0.3774539 0.021390446 0.020544225 -0.023375647 0.35323438 0.25419626 -0.0066273734 -0.288268 1.3583876e-05 0.309118 0.23105562 0.6813432 0.34733388 -0.21687095 -0.10306128 0.051755838 0.36500436 0.0038933947 -0.46229368 0.18229273
34 0.24841186 -0.23511718 -0.07068071 -0.0661882 0.14076906 -0.1478886 0.16738316 0.42166966 -0.6508067 0.004937971 0.17891717 -0.029306209 -0.20031844 0.35455054 0.23859207 0.41009557 0.24094695 -0.23254131 -0.17012842 0.11405267 0.5577249 -0.10668218 0.59706545 -0.23562662 0.2059859 0.055272214 -0.17394403 -0.08684734 -0.30083397 -0.20269625 -0.15119344 0.2235121 -0.16444622 -0.40553933 -0.46119344 -0.2630931 0.3788773 -0.0292324 0.0940964 -0.06511938 -0.12613165 0.18456359 0.33074623 -0.38263595 -0.42074576 0.11813039 -0.021777824 -0.070448905 0.31898305 0.26961386 -0.06728657 -0.161838 -0.044370163 0.31075522 0.2940766 0.63929844 0.3743642 -0.15965243 -0.10036294 0.056646284 0.3870745 -0.035889775 -0.44239447 0.14406836
17 0.32742938 -0.068673864 0.8334551 0.23507968 -0.060717877 -0.65469515 -0.16426572 -0.3088411 -0.05457818 -0.6875188 -0.23623936 0.2780575 -0.18567573 -0.2720878 0.481214 0.15623401 -0.41324326 -0.52145255 -0.6636291 0.014833746 0.10804844 0.18718423 0.6004175 -0.104363166 0.1845975 0.6527541 -0.2709456 0.25012654 0.13700029 -0.6302388 -0.49191666 0.3021516 0.0034191466 -0.06524785 0.17153643 -0.0367388 0.7532176 0.37660462 0.30990764 0.7198559 0.007000071 0.1433482 0.31472895 0.12683932 0.014509134 0.19154818 0.37701565 -0.3368617 0.023962833 0.092296794 -0.14338984 0.0007007962 0.1871515 0.43271938 -0.0051458473 0.84011304 0.2339123 -0.32929337 -0.4343145 0.022409273 0.105911136 -0.6407398 0.105677076 0.41126883
33 0.61799496 -0.20725948 0.58563226 -0.11779732 0.24248211 -0.40595916 0.12907681 0.471887 -0.06716249 -0.0071478304 0.3396462 -0.07885441 0.2310464 0.3291729 0.45250025 0.5034412 -0.17934832 -0.41713643 0.15629308 0.50449485 0.36218923 0.21502447 -0.062460143 -0.25663012 -0.4748878 0.6374868 -0.44439402 -0.114962384 0.18995246 0.3024269 -0.4838727 0.22695848 -0.38420573 -0.34876978 0.19490539 0.2015 -0.22348914 0.61045754 0.30453536 0.2050457 -0.18226898 0.4004805 0.102460094 -0.17979242 0.5089038 -0.06834894 -0.078287795 0.08355484 -0.03231815 0.5243422 0.07122093 -0.08924248 0.20914322 0.012973338 0.09619726 0.3359251 0.34904405 0.32582998 -0.09437255 -0.11852668 -0.13464585 -0.45249638 -0.11901379 -0.014350246
30 0.6481997 -0.22122498 0.5644911 -0.16350229 0.18421525 -0.5169149 0.051895242 0.44554257 -0.0057679145 -0.06827246 0.31372234 -0.17867047 0.26268739 0.32144725 0.38731337 0.55889046 -0.2658847 -0.47745794 0.16223292 0.41046306 0.46014157 0.25850412 -0.037139844 -0.13792647 -0.45045817 0.68043154 -0.37664962 -0.1797327 0.23526189 0.3795597 -0.54538643 0.1943493 -0.38614213 -0.276068 0.1363873 0.24262148 -0.16933508 0.5774265 0.3040809 0.06921869 -0.15401763 0.36986727 0.11701432 -0.16787015 0.48153868 -0.1323416 -0.21603736 -0.07027886 0.080052085 0.43143538 0.04146778 -0.17721798 0.15874457 0.053196717 0.13143186 0.2896477 0.3177164 0.26926127 -0.16468869 -0.24848975 -0.16978355 -0.4328832 -0.08959107 -0.009764199
47 0.28175595 -0.23676 -0.07277369 -0.12084068 0.06015921 -0.16338336 0.2389695 0.45594394 -0.7041633 0.060949292 0.14348279 0.025855629 -0.3055835 0.3831576 0.2753163 0.37695235 0.2385514 -0.15077028 -0.14803456 0.14049499 0.4998914 -0.11154695 0.5234102 -0.07571648 0.19406413 0.08090595 -0.1825147 -0.07405151 -0.27750593 -0.22777021 -0.11677805 0.08967136 -0.12157896 -0.40668368 -0.4530401 -0.24947962 0.35861996 -0.02815647 0.15219519 -0.08440669 -0.07511459 0.3112667 0.21798912 -0.35100773 -0.38263813 0.056399032 -0.031653263 -0.02868095 0.29843622 0.23820744 -0.021648344 -0.12983987 0.06771652 0.3019559 0.35388407 0.7003164 0.35883257 -0.23814012 -0.052752957 0.11652027 0.3923833 -0.13410199 -0.46693838 0.24225233
19 0.628626 -0.14676175 0.5203637 0.15780853 0.2290917 -0.22917092 0.14742543 0.15819749 -0.40646654 -0.49506915 -0.4193519 -0.55738384 -0.06442038 0.2948401 0.18487605 0.15965322 -0.5899046 0.35550818 -0.57216823 0.42465475 0.878039 0.117564425 0.98898596 -0.38171697 0.17361233 0.5443056 0.009519529 0.06895036 -0.5317249 -0.19571486 -0.41071466 -0.1265599 -0.22450309 -0.7729622 -0.14589147 -0.14212637 -0.6549165 0.77051026 0.29425877 -0.21023726 -0.3364117 0.38749006 -0.5683747 0.21976185 0.15891416 0.49044856 0.27360865 0.10970415 -0.1600875 -0.061410557 -0.6597253 0.41084567 0.44436282 0.7623825 0.2400432 0.36509922 -0.35664397 -0.045925364 -0.4531418 -0.27246845 0.1755359 -0.050291818 0.08024096 0.07725767
48 0.3604394 -0.17973915 -0.005102593 -0.09536551 0.1330912 -0.07109502 0.13681173 0.35370603 -0.6578457 -0.059551183 0.1027015 -0.04890162 -0.22535083 0.34811145 0.26262018 0.43056226 0.27234662 -0.23297442 -0.124796 0.1463777 0.5506978 -0.079845704 0.59458065 -0.17728855 0.09687937 0.0075827427 -0.23722786 -0.13573124 -0.34635875 -0.23369704 -0.0056977794 0.19094652 -0.14536591 -0.40840286 -0.47505045 -0.3419887 0.37263724 -0.03865303 0.09845757 -0.051236022 -0.052096467 0.22823884 0.29980046 -0.3884587 -0.42663768 0.02845549 0.025072886 -0.033243172 0.28670165 0.28025377 -0.08538203 -0.22472578 -0.0019380493 0.28376248 0.23993607 0.6788524 0.3251497 -0.10615257 -0.1143845 0.07367413 0.34623042 -0.055682782 -0.47220576 0.13482332
12 0.24364744 0.030811546 0.84911823 0.25389278 -0.09813977 -0.67493546 -0.15936843 -0.24108826 -0.16021276 -0.68552303 -0.22329223 0.27768546 -0.3010983 -0.19855884 0.5431188 -0.026106117 -0.39389646 -0.46861535 -0.6375508 0.04427703 0.051395513 0.11366116 0.47515365 -0.10701092 0.18808761 0.62457997 -0.29550868 0.29322731 0.13148953 -0.6268094 -0.45570982 0.36618274 -0.04296089 -0.12316497 0.23103155 -0.1187557 0.7509738 0.5094155 0.2369628 0.74680567 0.034148183 0.18695448 0.36646113 0.17870434 0.063936666 0.20052035 0.27503678 -0.1972105 0.09125831 0.17404002 -0.2857626 0.036436368 0.2889432 0.41306877 -0.0118924435 0.86988825 0.07527456 -0.293151 -0.35960656 0.107733786 0.15319265 -0.6462461 0.0002358433 0.390619
32 0.7039693 -0.27101475 0.5651305 -0.16026853 0.23036125 -0.4932524 0.09925691 0.44373217 -0.04875763 -0.13007772 0.41700923 -0.13053735 0.21562871 0.28830972 0.47347715 0.5160685 -0.20925131 -0.40557536 0.14344601 0.4785973 0.2988066 0.18989147 -0.05309654 -0.17128274 -0.35939574 0.59567755 -0.45629817 -0.1703806 0.19565481 0.4063525 -0.50620884 0.30034885 -0.34672973 -0.3523262 0.120790295 0.21937688 -0.29478154 0.59011215 0.36559838 0.22838004 -0.21328095 0.4124041 0.18536732 -0.23197399 0.45038038 -0.1212191 -0.07191619 0.04311511 0.08435981 0.4792281 0.0670638 -0.11476947 0.14351785 0.07999666 0.15997033 0.22584859 0.28195405 0.28780356 -0.10441367 -0.09963404 -0.14769396 -0.50937784 -0.053483587 -0.10038084
26 0.40947926 -0.003447005 -0.009472225 0.6332185 0.29184708 -0.49166882 0.032192674 0.057545595 -0.397315 0.09253799 0.3355371 -0.2386092 0.5147434 -0.5865721 0.6408787 0.39735407 0.46979642 0.02852294 -0.01032389 0.5839051 0.05329497 0.7046943 0.56352794 -0.17112714 0.012444802 0.5080236 -0.33175623 -0.6357125 -0.6281635 -0.68621796 -0.49897125 0.32656693 -0.52867824 -0.19118562 -0.4161206 0.62260324 0.48398265 0.6926741 0.53527445 0.0249962 0.27963874 0.08796207 -0.04674259 -0.24690405 -0.062141314 0.05170007 -0.44158423 -0.057682548 0.10649909 0.6420502 -0.32260257 0.18195085 0.99554956 0.91173345 0.34012607 0.31271955 -0.2917944 0.030141667 -0.6225945 0.31355077 0.2853549 -0.15663877 0.5772689 0.41713342
23 0.49762076 0.06831707 0.14677143 0.024838764 -0.10424464 -0.47283038 0.8517853 0.28991112 -0.20493369 -0.7612224 0.18811522 0.14624216 0.014525407 -0.17999314 -0.13402085 -0.07979347 0.06822638 -0.17061943 -0.06967296 1.1148611 -0.07236622 0.39341486 0.5492706 -0.4931008 -0.17049034 0.628873 -0.59361047 0.04518392 -0.06633185 -0.33042464 -0.20626678 0.22068723 -0.71084 -0.028858786 -0.3239572 -0.23851584 -0.08380742 -0.14775516 0.3497085 0.046950877 0.45159534 -0.2660679 -0.012049281 -0.20088978 0.3065369 -0.017510435 -0.022395102 0.11450671 0.16504945 0.0700944 -0.75575185 0.3008998 -0.16085024 0.7386384 0.13897407 0.33711964 0.19599882 -0.49578956 0.30966812 -0.58395594 0.00974286 -0.32238266 -0.09156326 0.33253428
24 0.39910287 0.09288888 0.1886747 -0.0048462376 -0.062421136 -0.5155794 0.81798875 0.34243628 -0.18220466 -0.82693404 0.2958815 0.059258044 0.09622643 -0.21444334 -0.12357395 -0.17301802 0.1215411 -0.17053317 0.036034945 1.0768443 -0.058035877 0.33455953 0.613228 -0.35796383 -0.09580886 0.73575246 -0.46931025 0.11213984 -0.004821259 -0.34809855 -0.1207901 0.20382649 -0.7338765 -0.03962536 -0.38126656 -0.22805117 -0.028651984 -0.039107483 0.33337373 -0.00643536 0.48752987 -0.2310747 0.009226516 -0.15802698 0.33357933 -0.012073842 0.027153345 0.057055816 0.20406742 0.057163186 -0.71365017 0.39013916 -0.08728713 0.7930134 0.15108617 0.33527094 0.32649627 -0.41764095 0.30192477 -0.6178832 0.058378622 -0.2695262 -0.10257979 0.22485639
2 0.5107126 0.024485823 0.22908835 -0.05673257 0.027443752 -0.4118277 0.8409826 0.27803665 -0.30387348 -0.84870726 0.2108375 0.15947379 0.21471357 -0.2189307 -0.13944177 -0.11083437 0.108251564 -0.20730186 -0.05278658 1.0530118 -0.019191075 0.44065127 0.503691 -0.45572677 -0.107365154 0.72298926 -0.5497704 -0.017331405 -0.10701929 -0.34106138 -0.29184252 0.16722095 -0.688069 -0.009392401 -0.38380778 -0.23853233 -0.06994704 -0.09848302 0.21896209 0.11277938 0.6161459 -0.26766244 -0.002167242 -0.24143323 0.28402066 0.00383751 0.04137873 -0.016380927 0.17210236 -0.035744064 -0.68521285 0.37957972 -0.10600508 0.72315526 0.12902872 0.30094028 0.20369634 -0.44791812 0.3288786 -0.58595276 -0.023561325 -0.24150255 -0.22335184 0.26273504
1 0.66644406 -0.19985457 0.52233976 0.1942551 0.2727774 -0.22440171 0.23291923 0.006199005 -0.5010789 -0.5370114 -0.35792595 -0.5894388 -0.10703192 0.17757869 0.16008805 0.2881907 -0.54134154 0.2982373 -0.5879112 0.52823496 0.8783552 0.13438015 0.9774302 -0.34453592 0.26555273 0.5041551 0.01872606 -0.011373681 -0.5084902 -0.17051674 -0.41173577 -0.081654474 -0.17649598 -0.85972196 -0.14133891 -0.17631464 -0.6733817 0.7182441 0.2659424 -0.13123979 -0.35067958 0.35772583 -0.49583352 0.238964 0.18301652 0.45369124 0.25556573 0.16412985 -0.2004792 -0.064056955 -0.60040784 0.462596 0.46799523 0.6944359 0.12774254 0.3063126 -0.26691392 -0.11934772 -0.45109898 -0.27408952 0.21946025 -0.1368215 0.09116641 -0.04057895
36 0.3253695 -0.17134337 -0.024106227 0.0010794998 0.029501265 -0.075935505 0.20913215 0.4124542 -0.6419059 -0.04750323 0.12945618 -0.069057055 -0.24790703 0.36138695 0.31303778 0.38980278 0.24147083 -0.2032032 -0.22378936 0.1549458 0.50967306 -0.08037627 0.6244099 -0.07350977 0.116317354 0.036507346 -0.15644357 -0.122448176 -0.2738254 -0.23558937 -0.15179145 0.1509729 -0.13346155 -0.44842556 -0.49689665 -0.3526359 0.36387697 -0.080838315 0.110380426 -0.10876119 -0.04950882 0.25969744 0.29465926 -0.3703705 -0.38705376 -0.016496953 -0.032950096 -0.005535827 0.3564026 0.27378136 -0.0071364767 -0.29376698 0.04713357 0.31569168 0.27840286 0.66770864 0.3612427 -0.18483578 -0.092024565 0.079519205 0.3129688 -0.07349319 -0.45203978 0.07998889
37 0.30101737 -0.2260241 -0.060097877 -0.14502026 0.10194318 -0.123116866 0.1508129 0.35266736 -0.6901649 -0.030557146 0.13522743 -0.022238111 -0.26213747 0.35178733 0.28618747 0.4095571 0.21796185 -0.1490193 -0.13578483 0.16366538 0.5224994 -0.12722242 0.60531604 -0.085410506 0.15623334 0.103178136 -0.17741588 -0.16737106 -0.2819852 -0.23470074 -0.094613485 0.1660244 -0.17726517 -0.38659042 -0.45653585 -0.27024353 0.3412975 -0.03128757 0.1271 -0.1191632 -0.030426502 0.2756996 0.30314517 -0.33498615 -0.38126463 -0.030125504 -0.002709975 -0.060240548 0.3350828 0.21253015 0.01805901 -0.26745063 0.03317555 0.3194958 0.24648473 0.69863826 0.33548343 -0.20224407 -0.1060973 0.01279624 0.38416165 -0.037353877 -0.4540933 0.14091827
43 0.30006856 -0.20003547 -0.056543704 -0.04708762 0.112914115 -0.06470862 0.1789238 0.4906732 -0.70356065 0.026156545 0.11998211 -0.06390521 -0.21449447 0.32724434 0.27751532 0.4405324 0.16310976 -0.19441599 -0.20778443 0.15780416 0.42623395 -0.15006319 0.5495458 -0.036374483 0.13836059 0.14525117 -0.10992818 -0.14111266 -0.34803 -0.20381697 -0.064532295 0.15969165 -0.17381573 -0.43336314 -0.41927123 -0.27240384 0.39580652 0.004009176 0.1426542 -0.12407675 -0.038283613 0.24084727 0.33894834 -0.25104877 -0.3806549 -0.0013016354 0.024171092 0.023441961 0.337657 0.21871546 0.037239514 -0.26311815 -0.015839312 0.36639133 0.3193564 0.68345237 0.4181597 -0.24804427 -0.09656888 -0.020564822 0.41070616 -0.04317913 -0.43422356 0.17792803
6 0.6455661 -0.2518001 0.5357366 -0.101624504 0.19847116 -0.48709285 0.12461511 0.513696 -0.049794935 -0.06988736 0.29441777 -0.14696594 0.21426219 0.3858043 0.48228413 0.5242891 -0.20873837 -0.4885988 0.18807387 0.46978718 0.406481 0.22712637 -0.07057058 -0.1992776 -0.46070212 0.70179415 -0.38597298 -0.122476354 0.20214586 0.3022519 -0.5197477 0.2039383 -0.31508973 -0.2722469 0.1459004 0.22726448 -0.22264986 0.5872148 0.19868772 0.13579318 -0.147903 0.38747135 0.094803184 -0.108886965 0.525981 -0.10737132 -0.14626381 0.04807984 0.07330929 0.51989996 0.03996798 -0.1465695 0.1985357 0.042804614 0.09104695 0.32527754 0.32149598 0.26251227 -0.12754072 -0.1544144 -0.1470784 -0.42367005 -0.047162358 -0.004533492
18 0.44757158 -0.048997514 0.17200021 0.030700881 -0.0955742 -0.47472954 0.777534 0.32962862 -0.24662009 -0.82619464 0.18829145 0.13988309 0.090608135 -0.18524775 -0.22285403 -0.15071839 0.02596572 -0.20395797 0.04424228 1.0695331 -0.023852773 0.3284982 0.513527 -0.46231776 -0.13697048 0.74613327 -0.6141125 -0.027983116 -0.1917204 -0.34576172 -0.2323125 0.14943637 -0.714738 -0.00086356804 -0.31785026 -0.18410558 0.029580643 -0.12757462 0.2667657 0.040330514 0.51168287 -0.21932228 -0.047908563 -0.25392762 0.40131116 -0.0035090104 0.013272713 0.09753188 0.156426 -0.009342628 -0.73106986 0.40193304 -0.16513453 0.75659215 0.22603486 0.3161392 0.26630396 -0.47764605 0.2928228 -0.46990034 -0.03549253 -0.26072142 -0.17816612 0.31637242
7 0.6205486 -0.18170534 0.4831186 -0.043631587 0.1214712 -0.493018 0.1444559 0.4123976 -0.13913277 -0.02413137 0.272886 -0.17037937 0.254544 0.37544885 0.510316 0.5064084 -0.2331026 -0.49673533 0.24207881 0.55612284 0.41394156 0.25709474 -0.048750307 -0.18360429 -0.46961805 0.66275793 -0.41733056 -0.022504928 0.19190468 0.29726627 -0.5669993 0.16583894 -0.34095022 -0.30196366 0.18328284 0.18806857 -0.27230254 0.5894573 0.23139645 0.16593505 -0.16901341 0.40358764 0.15488875 -0.14813781 0.468563 -0.061870594 -0.15138134 0.061716076 0.062270716 0.52386045 0.10945285 -0.082294814 0.19088237 -0.02363987 0.0462302 0.36211023 0.32914603 0.27183825 -0.10089273 -0.15978612 -0.18996823 -0.44780555 -0.045302007 -0.029156962
21 0.66473705 -0.14510682 0.49055445 0.10569456 0.27444494 -0.2921636 0.11931214 -0.0057016434 -0.4186059 -0.5530294 -0.2926867 -0.5780886 0.060806934 0.17187305 0.113005124 0.31167874 -0.5739011 0.27786654 -0.6533443 0.47276315 0.81974775 0.015753271 1.0439425 -0.40295383 0.3310532 0.45561042 0.0016285194 -0.11938569 -0.4578228 -0.15926097 -0.4236149 -0.05892321 -0.22712006 -0.90369695 -0.088822216 -0.101002894 -0.7072521 0.6032841 0.38523838 -0.1729487 -0.3183682 0.37880737 -0.5132107 0.19776973 0.14113924 0.52166677 0.1959394 0.1798946 -0.118950956 -0.19480704 -0.66257733 0.49097848 0.4835714 0.6500905 0.21930692 0.3294002 -0.3406444 -0.086684525 -0.4727754 -0.22758174 0.1442299 -0.20853683 -0.012522557 -0.034790866
41 0.34658217 -0.17700396 -0.057795715 -0.17470255 0.059360303 -0.10130118 0.13048662 0.3313807 -0.69035304 -0.012622031 0.11945482 -0.034461543 -0.16977885 0.33657295 0.3414758 0.4663602 0.22485289 -0.16588032 -0.12165706 0.17289954 0.5367525 -0.11265537 0.653395 0.011116932 0.17055827 0.03384887 -0.18876353 -0.17548461 -0.3102003 -0.24267514 -0.017452415 0.15056917 -0.19086823 -0.4012859 -0.4313441 -0.29527646 0.34280443 -0.061931722 0.11990309 -0.032022804 0.03516809 0.31856936 0.24727687 -0.41319904 -0.36219358 0.0335038 0.12576728 0.056415714 0.29492638 0.24188574 0.0026902128 -0.20842665 0.013667929 0.26159418 0.22184512 0.7811393 0.33969072 -0.14431696 0.026823876 0.021674443 0.4049705 -0.023951044 -0.37059444 0.17704888
11 0.21756214 -0.049977563 0.84861225 0.10978049 -0.007480492 -0.71324205 -0.16290244 -0.27693632 -0.12731056 -0.59623224 -0.21784684 0.2958746 -0.3294046 -0.25615293 0.5190766 0.059934076 -0.32460737 -0.4749623 -0.6741196 0.06651484 0.030596701 0.0854753 0.54631233 -0.07510553 0.24987939 0.5951853 -0.39980552 0.20128854 0.1345007 -0.60954607 -0.44773188 0.3636065 -0.055001367 0.017162113 0.28912836 -0.13145919 0.6360565 0.5357448 0.20713115 0.77331257 0.07314851 0.15054621 0.36141294 0.2687052 0.036999498 0.09458119 0.31221077 -0.29203856 0.012326621 0.1364937 -0.32403022 -0.12013093 0.31021577 0.47812003 0.13601461 0.87947786 0.031562857 -0.35400864 -0.40360332 0.05293706 0.10425204 -0.6272215 0.0001436694 0.23394488
