50 64
41 0.54565245 0.30175823 0.42118508 0.18304642 -0.30588612 -0.17316031 0.20441659 0.46192893 0.07419635 -0.07419356 0.33822984 -0.5829933 0.06500004 0.2055747 0.043217387 0.26556316 -0.17709605 -0.2500838 -0.61886525 0.03270251 0.20850265 0.13772853 0.66440964 -0.088585064 -0.14135109 0.046077166 0.38649842 -0.005395392 0.04863149 -0.0625459 -0.21538231 0.10871163 -0.6718113 -0.32715777 -0.2979244 0.044634517 -0.038274903 0.15607116 0.43293798 -0.018348748 -0.17800488 0.0053480486 -0.10147513 -0.40340427 0.13027665 0.056027494 -0.15719357 0.05733701 0.25047857 0.29088992 -0.4159541 -0.08106255 -0.2604233 0.7231197 0.6478343 -0.14828165 0.056844406 -0.119288854 -0.023638416 -0.2462634 0.27419132 -0.054705337 0.35723096 0.029630972
31 0.19847691 -0.23815718 0.32203093 0.039447475 -0.056267448 -0.07412876 0.24105807 0.046078656 0.013067086 0.026545992 0.331678 -0.17257935 0.014977336 0.15013175 -0.13086589 0.26259077 -0.07737789 -0.2781138 -0.18848452 -0.1682489 -0.0012243434 0.654609 0.674448 -0.22660844 0.3022824 0.49205777 -0.0363601 -0.14087334 -0.11578567 -0.2678484 -0.066044144 0.29529655 -0.3681796 -0.26700094 -0.17819442 0.12193108 0.045931015 0.22154063 0.36493105 -0.10060981 -0.16855708 -0.35548753 0.1777605 -0.04586344 0.1131609 0.17972243 -0.05210302 -0.15979062 -0.09223187 0.5771198 -0.46570855 -0.0078394925 0.0043773274 0.41939288 0.0356495 -0.04863908 -0.25324875 -0.46505138 -0.050503675 -0.16965285 0.30894193 -0.03163874 -0.032441642 -0.027999902
36 0.29647252 -0.041013874 0.44595698 0.044367693 -0.057014517 -0.016135847 0.20604242 0.08537961 0.14789176 0.09651315 0.39578402 -0.24965139 0.11639744 -0.009846651 -0.24197648 0.22368355 -0.08953574 -0.29805815 -0.30019146 -0.020415438 -0.14554703 0.525501 0.5732933 -0.29044577 0.17803583 0.519979 0.11426034 -0.11848486 -0.07515559 -0.2334656 -0.19839042 0.18449107 -0.5751711 -0.19943957 -0.19904453 -0.08720838 -0.054088175 0.23299162 0.3561687 -0.06530002 -0.075997986 -0.26091638 0.04755537 -0.10235602 0.2943603 0.25346556 -0.13545728 -0.089708425 -0.24658392 0.36179236 -0.5346416 -0.1004528 -0.10028489 0.5217448 0.16186231 -0.21148115 -0.3316208 -0.59440625 0.052568935 -0.24086988 0.27354616 -0.055448405 0.10288912 -0.10090907
21 0.014940412 -0.5719132 0.07767291 0.16245201 0.18082082 -0.048308372 0.080092065 -0.1293994 -0.013085535 0.18170619 -0.014330653 0.12726551 0.2601626 0.017703835 0.16844179 0.46329802 0.07842265 0.040176697 -0.018928468 -0.080803856 0.15523633 0.7275844 0.3555142 -0.059504725 0.50663173 0.36674157 -0.2412972 -0.23193075 -0.21306592 -0.2713199 -0.32316896 -0.24002847 0.063309245 -0.4378978 -0.10675867 0.26211634 0.05421107 0.47961056 0.6207471 -0.15945451 -0.15116031 -0.20675035 0.10932507 -0.29579118 0.16684598 0.2193056 0.32574782 0.015165958 -0.21656883 0.27432144 -0.12248501 0.24109177 0.3946814 0.24461712 -0.10823791 0.08136351 -0.12443505 0.13117246 -0.18573947 0.25718415 -0.19255874 -0.40909308 -0.21015377 -0.3413579
16 0.0637375 -0.46081737 0.1688255 -0.023115762 0.16039047 -0.46848807 0.3167715 -0.037669256 -0.15513664 0.10771817 0.15718104 0.29023898 0.20872612 -0.068457216 0.46843776 0.31436294 0.26170465 -0.008458513 0.25346407 0.43524313 0.14422499 0.3879789 -0.021771504 0.0077227983 0.13914 0.10834671 -0.36799818 0.0054524792 0.04408561 -0.41647822 -0.3122925 -0.3930486 0.07221545 -0.11473078 -0.23135945 0.31531015 0.32011014 0.27724713 0.5117478 0.024370436 0.31955793 0.17974244 0.14620113 -0.39929464 0.21523505 0.12755565 0.32109386 -0.10075016 0.119483955 0.15043452 0.053789992 0.35922006 0.27370194 0.051033992 0.3277851 0.41746533 0.19513954 0.0319148 -0.037855633 0.2523436 -0.05675978 -0.3961459 -0.34957948 0.021097073
26 -0.0192473 -0.45280898 0.05163251 0.106274195 0.025706941 0.040253323 0.3178803 -0.024557026 -0.10046308 0.3403445 0.1889209 0.1716515 0.16115673 -0.09395719 0.18166815 0.4965387 0.270708 -0.17789033 -0.014668251 0.013827514 -0.03669829 0.78859377 0.3161407 -0.2017284 0.6007527 0.3870546 -0.21869957 -0.12513794 -0.28528675 -0.21003385 -0.25561255 -0.11741168 -0.11517866 -0.3469279 -0.15997684 0.20416267 0.053623017 0.5458167 0.6494029 -0.2695606 -0.105201155 -0.23888649 0.20951156 -0.12348538 0.15286084 0.29698148 0.24940868 0.22127666 -0.3611357 0.11193973 -0.17800628 0.14473657 0.20948543 0.29295272 -0.015802355 -0.07163048 -0.13114025 -0.031701706 -0.14411496 0.08315821 -0.11920669 -0.21045473 -0.03900335 -0.2256322
6 0.17719452 -0.17202245 0.3078091 -0.15347312 -0.0059337537 -0.7848514 -0.13017356 0.31351665 -0.25358006 -0.0733406 0.08080194 0.23245457 0.19673137 -0.1515402 0.23738962 0.014570233 0.50152236 0.093117766 -0.01512116 0.26518813 0.032781586 -0.15792468 -0.08709868 0.018613044 -0.1849283 0.35362673 -0.39162692 -0.35549414 -0.06754088 -0.26865107 -0.5303095 -0.3865679 -0.57577544 0.19086467 0.20647319 0.17524093 -0.25339493 0.046308465 0.5519868 0.16678786 0.04647669 0.3695441 -0.15107574 -0.10352463 0.05083308 -0.41613922 -0.098105855 -0.26535904 -0.10163732 -0.02998768 0.26542675 0.1389881 0.47663108 0.46414766 0.6298387 0.31440172 0.101594694 0.07304521 -0.12583525 0.36387566 -0.079913944 -0.5548672 -0.18190064 0.1134566
11 0.14790028 -0.42969254 0.2351044 0.054670837 0.21777412 -0.5293878 0.1788044 0.026281947 -0.12057496 -0.13104275 0.01886652 0.22498745 0.33044207 -0.261512 0.48259825 0.25636628 0.33300745 0.09624827 0.3473159 0.5023153 0.16010544 0.19514498 -0.0068687415 0.16089025 0.0822468 0.07765533 -0.3329937 -0.16747366 0.12933144 -0.27980173 -0.17147447 -0.39687645 -0.1495571 -0.2910523 -0.14994384 0.26340908 0.1993066 0.28168643 0.6099413 -0.10615516 0.29763797 0.31904984 0.026381092 -0.49646625 0.32609496 -0.16797127 0.22187647 -0.19530782 0.17833462 0.15588257 0.20631096 0.2772854 0.336807 0.17008598 0.34337983 0.42753753 0.08003949 0.3235461 -0.06695236 0.31859866 -0.29735923 -0.36549553 -0.36479864 0.0049166926
0 0.12516174 -0.1589381 0.34500214 -0.3372447 -0.048581306 -0.85180694 -0.17496447 0.35706753 -0.28291455 -0.065828346 0.20924245 0.19112973 0.05581064 -0.06646878 0.39344758 0.00087334204 0.41333404 0.02869485 -0.107526 0.30741125 -0.04456916 -0.33425924 -0.053188022 -0.031631738 -0.083290614 0.41637358 -0.18137854 -0.38684553 0.09957907 -0.24241596 -0.5566399 -0.32377908 -0.66451776 0.16622613 0.23716374 0.3280277 -0.3661815 0.18279609 0.42174214 0.020709254 0.023568317 0.47851214 -0.26079872 -0.05256698 0.18233706 -0.5401891 -0.16916385 -0.39775184 0.02567149 0.13705648 0.20884097 0.08161505 0.5728101 0.55197805 0.70456904 0.32038122 -0.00018316026 0.038691584 -0.06261692 0.2926352 -0.09354003 -0.5255594 -0.217399 0.11308164
15 0.07194334 -0.34007156 0.20735304 0.19911979 0.19262072 -0.62416995 0.23214413 -0.0231708 -0.046633407 -0.15642725 0.015287491 0.2082029 0.42308852 -0.114982165 0.56154996 0.27157938 0.2105828 -0.010313054 0.29897228 0.40569404 0.2486323 0.25173405 0.13269353 0.08529597 0.14581211 0.19365743 -0.28018126 0.015836047 0.06864149 -0.45272538 -0.338275 -0.38506028 0.05782674 -0.1520321 -0.23588863 0.26304358 0.26491797 0.32053992 0.4877071 -0.07061585 0.35456523 0.30847338 0.016427968 -0.4380954 0.2399333 0.04556393 0.264861 -0.056441765 0.21622525 0.12199004 0.03352281 0.31057394 0.37105426 0.14614496 0.30033892 0.52071303 0.19594418 0.20555592 -0.1853527 0.2550396 -0.19403419 -0.36564627 -0.2873656 -0.011562009
32 0.3553311 -0.12934029 0.42762986 0.04531596 -0.04402483 -0.06348531 0.19578832 0.010132329 -0.018685821 0.034182634 0.2781173 -0.2977204 0.056741223 0.086776495 -0.111119226 0.12581289 -0.10788865 -0.3808703 -0.2892918 -0.19576605 -0.082664 0.62201035 0.60438395 -0.32625565 0.1785017 0.6025014 -0.08270549 -0.103056185 -0.1611432 -0.30976823 -0.22475366 0.3249148 -0.5725968 -0.17288591 -0.1312268 0.012788213 -0.0481259 0.36805153 0.3405837 -0.07993234 -0.088758945 -0.29836583 0.030223148 -0.053852797 0.16389783 0.15078214 -0.11405087 -0.12095542 -0.22825162 0.52322835 -0.53642005 -0.07874155 -0.017381413 0.46641472 0.10757447 -0.102748826 -0.3486933 -0.6492309 -0.09551488 -0.1506952 0.3045371 -0.07282781 0.046254154 0.032139003
19 0.057415955 -0.437056 0.1709853 0.22096217 0.08453107 -0.6027183 0.29403806 0.07436872 -0.02844847 -0.03129239 0.035244957 0.17988783 0.35109496 -0.10264764 0.4864468 0.30457607 0.2755278 0.014202673 0.21680342 0.45476925 0.19554286 0.27144656 0.08775008 0.18049927 0.14669275 0.19062933 -0.31356984 -0.016729925 0.04492164 -0.43886992 -0.23949213 -0.43280068 -0.06483393 -0.25767976 -0.2961619 0.3384927 0.38264513 0.23450486 0.5929237 -0.053307023 0.29944214 0.30751806 0.08011381 -0.4590801 0.27635127 -0.0058471705 0.21980992 -0.02738869 0.26958925 0.02910368 0.14803381 0.40417778 0.2655684 0.15146214 0.3159551 0.5208073 0.30850035 0.24754529 -0.16597345 0.3795615 -0.18791305 -0.31729573 -0.34451562 0.17625418
49 0.53600156 0.28480443 0.3225676 0.26017976 -0.2073715 -0.18344854 0.1539351 0.5845212 0.19914168 -0.2484049 0.340037 -0.66834927 0.13931246 0.13081633 0.13672714 0.25652936 -0.15705113 -0.33630317 -0.50778157 0.27694583 0.16352992 -0.02202665 0.57728887 -0.096463144 -0.32608792 0.0871962 0.42321226 -0.008442556 0.061906304 -0.06835163 -0.17847656 -0.016610362 -0.7228238 -0.26214778 -0.34113914 0.09552278 0.031085795 0.16154252 0.4797085 -0.10005449 -0.16291338 0.058170028 -0.034225035 -0.43009332 0.21575001 -0.02375949 -0.06675631 0.010128855 0.28441584 0.23905551 -0.4145672 -0.15857533 -0.25185278 0.85104275 0.8046146 -0.11931643 0.20428799 -0.08156142 0.014608854 -0.37826222 0.16646509 -0.064033955 0.32739818 -0.06737598
43 0.57979226 0.26885664 0.32781482 0.29159373 -0.23989002 -0.17052749 0.23757344 0.5507182 0.12166627 -0.1527027 0.31818745 -0.5695314 0.16700812 0.06632814 0.10786684 0.29298437 -0.22940758 -0.3660905 -0.46641275 0.29916567 0.12277234 -0.081672385 0.6442115 -0.13084005 -0.2435251 0.11561847 0.4158802 -0.034595486 0.017589534 -0.06610203 -0.18438539 -0.012805812 -0.72641504 -0.25334457 -0.33819216 -0.008102636 0.011825688 0.15825127 0.40029794 -0.08648291 -0.058778435 0.056342162 -0.12603216 -0.43772393 0.2636507 0.066297226 -0.041178156 -0.02290963 0.23373884 0.26240718 -0.34435275 -0.09442295 -0.32833803 0.8569041 0.82520574 -0.13601083 0.24094866 -0.08418285 0.098600626 -0.34930408 0.20655246 -0.1421051 0.45145738 0.053363718
2 0.27513462 -0.138255 0.46402898 -0.32929018 -0.019778235 -0.7570489 -0.19340594 0.33725467 -0.35465905 -0.26101664 0.09517144 0.21502179 0.06356165 -0.01689089 0.36488044 -0.010194375 0.38178325 0.020648915 -0.03371531 0.27044535 -0.03370415 -0.33765554 -0.06606397 -0.12999167 -0.21140257 0.40475696 -0.30371 -0.42369306 -0.01167738 -0.22538492 -0.47931483 -0.28862956 -0.67487204 0.03618555 0.35280582 0.22535169 -0.39488158 0.18248215 0.40059143 0.029790409 -0.032454837 0.48128557 -0.22584835 -0.0558779 0.19846648 -0.52149004 -0.08803593 -0.41549465 -0.029255677 0.21797289 0.22968985 0.13861129 0.45509052 0.5104616 0.70768017 0.2983909 -0.05088474 0.117731676 -0.008284922 0.26542106 -0.12950766 -0.6432555 -0.2473957 0.050666124
9 0.25493762 -0.13011634 0.41296437 -0.32882506 -0.13444573 -0.76843953 -0.25584456 0.3254119 -0.36076716 -0.123566836 0.07960759 0.18205108 0.023939935 -0.082610495 0.3307566 -0.00626948 0.4873883 0.081740856 -0.028006075 0.24070208 -0.02626311 -0.27535483 -0.04580812 -0.03167631 -0.1211281 0.28192446 -0.28202972 -0.46816778 0.08577788 -0.20423274 -0.50311 -0.25780782 -0.6777963 0.08025466 0.32009718 0.21635807 -0.35741192 0.20262854 0.50964504 0.080227025 0.01907308 0.3401926 -0.07595609 -0.11971792 0.055832587 -0.5673814 -0.17966509 -0.47804436 -0.025775222 0.14588135 0.31209525 0.10212523 0.4969107 0.5891073 0.7392693 0.28959984 -0.048284914 0.08075101 -0.040456485 0.27109426 -0.09330281 -0.6510082 -0.17765205 0.011461276
5 0.24265504 -0.13594966 0.39083713 -0.35613889 -0.0135754375 -0.799904 -0.18485112 0.4385195 -0.3036016 -0.02392798 0.102399684 0.19345705 0.07105372 -0.029893478 0.3128652 0.02730054 0.49321783 0.04966317 -0.117615774 0.32418704 -0.07930835 -0.33696327 -0.07482017 -0.08388407 -0.14460915 0.33513016 -0.26218173 -0.43181738 0.015542365 -0.2377246 -0.36947238 -0.32335594 -0.73230845 0.15463006 0.26104298 0.20552517 -0.2883976 0.09971994 0.42114988 0.0808985 -0.027421795 0.40911388 -0.13349469 -0.046701595 0.06106636 -0.5471755 -0.11317568 -0.4373278 -0.01620352 0.20665675 0.20753413 0.15467604 0.45454118 0.54985833 0.7602528 0.34643343 -0.0015329829 0.071988404 -0.030264106 0.34295392 -0.086601585 -0.6171232 -0.31119323 0.09608038
40 0.5717731 0.25841165 0.46913102 0.21085316 -0.20360625 -0.12983805 0.12546608 0.49426076 0.23715796 -0.2080845 0.39866653 -0.6348981 0.2013408 0.16983421 0.047592483 0.34418213 -0.13019788 -0.33719572 -0.45992637 0.32689986 0.15314715 -0.052798837 0.6503542 -0.072371975 -0.23650387 0.13180567 0.45405847 -0.09615177 0.016361173 -0.14550741 -0.20823398 -0.105087966 -0.7252638 -0.3255814 -0.30126503 -0.026841598 -0.06633364 0.08731147 0.39784133 -0.031242218 -0.09526032 0.10712712 -0.115849644 -0.4951886 0.28310704 0.037006915 -0.037992563 0.02799276 0.181079 0.18377832 -0.41753194 -0.14415623 -0.3291785 0.79725003 0.7446573 -0.090934224 0.16604023 -0.10212881 0.113003395 -0.33453184 0.1960682 -0.026554288 0.37614822 -0.07358642
47 0.53293335 0.2532625 0.37653336 0.21597555 -0.12856981 -0.12802742 0.07685192 0.56746936 0.18936256 -0.21289146 0.3336486 -0.63465935 0.17962527 0.14375445 0.035830785 0.2547626 -0.21537147 -0.30853906 -0.5318876 0.24672687 0.18220039 -0.042037208 0.57930356 -0.12364352 -0.36104023 0.10848716 0.42612568 -0.04052633 0.017502492 -0.027808992 -0.3252652 -0.05774849 -0.6633985 -0.29046172 -0.31212106 -0.08445669 0.07935696 0.1472806 0.4879931 -0.077423476 -0.15641959 0.0023830307 -0.08143227 -0.41717237 0.25506377 0.108814545 -0.043306895 -0.065209255 0.21614353 0.2385731 -0.4720809 -0.16110738 -0.2687382 0.8183543 0.80145127 -0.051420674 0.26500866 -0.108413815 0.05617579 -0.36670434 0.18763532 -0.107348524 0.27442604 -0.07964615
4 0.2007346 -0.076460265 0.38897935 -0.33533305 -0.03503529 -0.79103094 -0.12540293 0.4335171 -0.32451335 -0.05852138 0.10209999 0.2369425 0.13680416 0.008703976 0.36007053 0.024995925 0.5686828 0.059133332 -0.021222789 0.1752559 -0.13752514 -0.3646514 -0.07061309 -0.13375926 -0.08785032 0.33538505 -0.18560259 -0.43808195 0.01698604 -0.28550756 -0.39178663 -0.33370608 -0.7228037 0.14565356 0.26495674 0.17342338 -0.31396365 0.17274413 0.4448031 -0.06490113 0.034983236 0.40947473 -0.1357378 -0.03254662 0.094195805 -0.49942228 -0.15085174 -0.42398503 -0.025642108 0.1627344 0.25349241 0.15445776 0.43657616 0.5681613 0.85965115 0.28786665 -0.009953569 0.05915317 -0.045233134 0.29192615 -0.05712503 -0.65923667 -0.28683743 0.0033939
8 0.23213224 0.006187124 0.40580633 -0.32017055 -0.06306134 -0.81028455 -0.1533412 0.38027158 -0.32898507 -0.069547094 0.14178887 0.096969 0.13633469 -0.080819376 0.36022204 -0.0016127881 0.58670497 0.07315701 -0.07620012 0.34460327 -0.08966985 -0.23344283 -0.14882007 -0.086587414 -0.22573568 0.31379893 -0.23043893 -0.49043146 0.045670137 -0.23148833 -0.48107603 -0.30946508 -0.78325975 0.17086232 0.26939583 0.22825788 -0.2756433 0.1767762 0.38587108 0.053802855 0.038585253 0.37316525 -0.15143524 0.00043376134 0.11507692 -0.48173198 -0.2749467 -0.49634546 -0.031665914 0.18754691 0.20992509 0.21326905 0.5645619 0.5583224 0.7843727 0.264107 -0.021919247 0.13239938 -0.05067759 0.26223722 -0.08465643 -0.6017111 -0.22771625 0.067827865
25 0.03244582 -0.5064748 -0.037062746 0.19175446 0.14112389 0.12933227 0.31354323 0.001027374 -0.11592932 0.3554644 0.08044511 0.22499576 0.20909633 -0.01339957 0.17731303 0.59587723 0.18569952 -0.105872214 -0.07879222 0.037213415 0.109880544 0.86118287 0.32545036 -0.20933867 0.43731555 0.24595223 -0.26486063 -0.17993663 -0.33804107 -0.21667871 -0.37659216 -0.25294614 -0.030145893 -0.3620538 -0.15451805 0.20679334 0.0053803152 0.450672 0.7485537 -0.11439235 -0.15088463 -0.30775157 0.24125199 -0.2895947 0.07747945 0.29696205 0.3615845 0.13177952 -0.35510594 0.25285795 -0.21215379 0.10266583 0.3453802 0.27702165 0.041232035 -0.01869729 -0.060781542 0.065133095 -0.044032935 0.04429182 -0.12845269 -0.39627212 -0.0945513 -0.3246249
12 0.13610439 -0.3185879 0.23589893 0.054404486 0.14102116 -0.6234107 0.21621256 0.04124939 -0.07362253 -0.08249013 0.12836367 0.18259105 0.39205563 -0.28568864 0.50232416 0.1807536 0.33007392 0.03796434 0.30360448 0.46921238 0.181499 0.36873388 -0.0037562037 0.24130432 0.07893589 0.13318716 -0.28545767 -0.023443963 0.14146928 -0.40547562 -0.25442618 -0.44112742 -0.0036310402 -0.12686843 -0.3028981 0.24280569 0.40142798 0.26888224 0.55525696 -0.026303174 0.34384724 0.14915733 0.10856138 -0.3861217 0.16620249 -0.00088561187 0.1934326 -0.2112301 0.23904403 0.14575274 0.07917958 0.41709796 0.31759703 0.20311216 0.32480764 0.49764 0.27398452 0.17748095 -0.094497554 0.21516696 -0.11995076 -0.2953756 -0.31040677 0.013400339
34 0.35899514 -0.20168899 0.41579422 -0.034533072 0.0023655936 -0.12045565 0.2133911 0.05067482 -0.0001846721 0.07110763 0.31984037 -0.21050406 0.084164865 0.03891636 -0.13882574 0.24474908 -0.053376786 -0.30765244 -0.26036152 -0.10004195 -0.04300486 0.57617605 0.6171193 -0.45080888 0.24865416 0.48035172 -0.14004552 -0.123756796 -0.083012275 -0.23541677 -0.14200662 0.41000566 -0.46026573 -0.24613215 -0.15593493 0.07434552 -0.055376902 0.29578426 0.38473544 -0.16889 -0.099514976 -0.2596345 0.03273555 -0.04532457 0.1625612 0.16749436 -0.19189478 -0.1348947 -0.17792349 0.44843942 -0.5286234 -0.11378229 -0.12325258 0.44423315 0.13443096 -0.09993796 -0.42667392 -0.6210931 -0.14837022 -0.20175312 0.23942848 0.033786837 -0.07067697 0.07395935
18 0.07775894 -0.38311902 0.13702263 0.30159086 0.11452444 -0.6249161 0.23446319 0.09971072 -0.04853751 0.005444149 -0.026769798 0.18911092 0.40037805 -0.21940114 0.5063333 0.23764604 0.23105788 0.07096476 0.27578008 0.49768695 0.25294465 0.25947186 0.07951919 0.08855311 0.15368514 0.09674772 -0.33765337 -0.035008743 0.11784297 -0.40797573 -0.3129003 -0.35968098 -0.001896139 -0.135795 -0.17136368 0.27220458 0.38954312 0.2987366 0.52313316 -0.015185863 0.3497668 0.29804194 0.0760181 -0.40953466 0.22092126 0.042149503 0.1868106 -0.10466403 0.14402096 0.15259293 0.1232804 0.27014273 0.38741678 0.16496551 0.36343303 0.5150635 0.16238302 0.1547656 -0.16001259 0.28990757 -0.19336209 -0.36397868 -0.23684496 0.05205641
38 0.35620728 -0.25298148 0.3815859 -0.014343861 0.016397357 -0.17083772 0.28573075 0.0710018 -0.06163693 0.07523974 0.25469306 -0.30173087 0.046888404 0.07739068 -0.11537122 0.28361514 -0.10908288 -0.36130953 -0.301874 -0.20416477 -0.025189018 0.5904914 0.62508154 -0.30088833 0.31764364 0.55625576 -0.06896567 -0.14308253 -0.1078075 -0.30681872 -0.15477319 0.33634356 -0.46003047 -0.23423897 -0.09250732 0.12748882 -0.054335106 0.25583112 0.30746284 -0.19007394 -0.11530415 -0.27385676 -0.022854136 0.03766326 0.25088617 0.23403262 -0.1603955 -0.074450746 -0.11801779 0.49841565 -0.55736864 -0.040739093 -0.05358609 0.41987062 0.20599292 -0.086936556 -0.3935744 -0.7163811 -0.11085758 -0.19133602 0.31712818 -0.05559886 0.028645461 0.08412341
42 0.5832683 0.35351565 0.2768494 0.30740777 -0.17239603 -0.101363964 0.16951334 0.5285343 0.1931342 -0.21382938 0.33634 -0.6652082 0.29660815 0.13403627 0.25714573 0.30282727 -0.14829515 -0.38885128 -0.59025586 0.21472329 0.046836685 -0.018749662 0.5745971 -0.12765051 -0.27229562 0.04048121 0.49583477 -0.045455124 0.025635669 -0.09084186 -0.2761528 -0.060560193 -0.7385571 -0.3583702 -0.39987475 0.026386004 -0.1150168 0.13318701 0.43220672 -0.0889795 -0.10528437 0.045197066 -0.06450005 -0.4546388 0.10533476 -0.0030988082 -0.1043681 -0.0042834086 0.3063594 0.22347566 -0.38644293 -0.19036461 -0.213211 0.7843117 0.7794137 -0.09148086 0.18088523 -0.11849918 0.029324237 -0.3168489 0.13819666 -0.10679064 0.3055583 -0.11601649
45 0.5657456 0.24493937 0.34383947 0.3074993 -0.2574908 -0.21363394 0.16774178 0.70724887 0.115081355 -0.22971097 0.36310232 -0.6123185 0.27382287 0.13709314 0.17727359 0.31166485 -0.14413212 -0.37335944 -0.5684946 0.25323525 0.12205415 -0.027773298 0.5413266 -0.110759735 -0.24338524 0.06644631 0.42048088 -0.09306391 0.05362151 -0.054280072 -0.25533926 -0.018971194 -0.6375971 -0.38130954 -0.28816968 -0.005281749 0.0038284643 0.04688941 0.3778714 -0.083081745 -0.12724623 -0.03285608 -0.053275317 -0.4129149 0.2223235 0.01740252 -0.13860172 0.035099566 0.34180912 0.33573237 -0.35403967 -0.1358337 -0.3569119 0.8294291 0.79264975 -0.056940295 0.22366883 -0.15753125 0.1538533 -0.3453741 0.155882 -0.026723852 0.2133724 -0.08045664
14 0.1672666 -0.52730083 0.27226797 0.11164443 0.10740329 -0.5974751 0.18621159 0.02407992 -0.03228325 -0.084762014 -0.0051578926 0.2315325 0.3440594 -0.15176702 0.4600299 0.26082152 0.21792176 0.055728763 0.26167506 0.35787448 0.22191332 0.23657236 0.096193925 0.1326662 0.119430594 0.18062684 -0.4021319 -0.050781433 0.15564005 -0.41896212 -0.2973681 -0.35827366 0.019256504 -0.20626612 -0.22595526 0.28438672 0.31897312 0.22472852 0.61893594 -0.034377918 0.354857 0.27893078 0.047438487 -0.4929226 0.29497024 -0.045039628 0.29015458 -0.0752427 0.21292657 0.009783836 0.18248855 0.2572 0.21004903 0.17903605 0.3290924 0.5012599 0.24711531 0.14361629 -0.1923026 0.35297656 -0.16837214 -0.41483223 -0.3575808 0.08481384
20 0.068356335 -0.48099202 -0.0041495357 0.10193785 0.16727617 0.12525347 0.20482531 -0.0012686871 -0.15931061 0.32829055 0.1810833 0.13282035 0.181958 -0.0033504756 0.19225042 0.47362167 0.17896867 -0.05276469 -0.026968045 0.023406971 0.07675192 0.8235749 0.23217091 -0.13797256 0.37721342 0.33011773 -0.24624337 -0.13078263 -0.29912752 -0.24799012 -0.47869873 -0.33044922 0.047730085 -0.3812344 -0.18092053 0.23985103 -0.06071477 0.5285259 0.6604359 -0.08419207 -0.15403354 -0.31583512 0.11616893 -0.32365367 0.0878716 0.31408975 0.35204238 0.14035538 -0.367393 0.24993049 -0.17653297 0.16989632 0.30778214 0.33543906 0.018808492 -0.0933843 -0.025595823 -0.022386858 -0.05495377 0.118131906 -0.08847556 -0.324294 -0.097926825 -0.42179877
27 0.019676268 -0.49159846 -0.011650028 0.112758294 0.068807356 0.1306786 0.17162758 -0.061544336 -0.092421874 0.37774563 0.13110818 0.08684076 0.09318894 -0.024696864 0.09072193 0.54201645 0.18643926 -0.068999894 -0.09032991 0.0921266 0.11704229 0.840262 0.29110536 -0.08675033 0.41580814 0.28720716 -0.2153243 -0.24546756 -0.3039973 -0.21095943 -0.4249408 -0.30180782 -0.058843996 -0.36401966 -0.17281815 0.25166407 0.0432423 0.5220459 0.69411796 -0.07480792 -0.17682843 -0.3177069 0.23108935 -0.26678693 0.06676893 0.25324106 0.29891393 0.028996576 -0.38436168 0.22816801 -0.18739155 0.1624869 0.39582357 0.32919747 -0.0345077 -0.04485604 -0.038839098 0.07552396 -0.09519033 0.10407328 -0.10947599 -0.3293275 -0.05093667 -0.3358712
1 0.24896918 -0.13760148 0.4076109 -0.38264376 -0.06987555 -0.79054105 -0.11026842 0.3294904 -0.37451893 -0.11243319 0.07272544 0.19890858 -0.02625415 0.012559484 0.43524292 0.09183402 0.49220547 -0.046861384 -0.088645734 0.31704304 -0.03956974 -0.24997112 -0.11726872 -0.08279886 -0.06360193 0.37912393 -0.20077491 -0.391085 0.061649818 -0.17794985 -0.4601696 -0.36541 -0.6439282 0.19246434 0.21037078 0.21246627 -0.36016655 0.19184226 0.39028752 0.061822895 0.015114452 0.34814814 -0.09358157 -0.01343398 0.046685025 -0.5466628 -0.10207877 -0.42671695 -0.045757137 0.04202445 0.21170215 0.14387639 0.48300096 0.571544 0.71779966 0.2517709 0.06833424 0.06388025 -0.067877926 0.22588383 -0.104903154 -0.67666477 -0.27291209 0.049955104
46 0.5881541 0.28977948 0.31657746 0.29101318 -0.15290172 -0.17520578 0.13108358 0.6429841 0.12631829 -0.20220727 0.27879182 -0.61624193 0.2684605 0.07085597 0.17326769 0.22108838 -0.20324646 -0.3352724 -0.5268683 0.252941 0.08456003 -0.08138877 0.5328388 -0.19480759 -0.3169626 0.05239178 0.4266802 0.006093295 0.00916137 -0.03824182 -0.25076512 -0.028352842 -0.69783485 -0.3501777 -0.35157537 -0.03963673 -0.037042707 0.18820693 0.47894266 -0.10485104 -0.09921404 -0.0076504787 -0.12952179 -0.38825497 0.22481403 0.10966752 -0.09764178 -0.0022119086 0.29407072 0.2510365 -0.47440895 -0.121669345 -0.31926864 0.86480343 0.8422885 -0.07608583 0.14877847 -0.09351024 0.05565903 -0.31575018 0.16399017 -0.043146376 0.28842676 0.03214488
7 0.1242317 -0.04192403 0.31779918 -0.30957365 -0.07702168 -0.8376067 -0.14570376 0.29086563 -0.3001833 -0.09760895 0.21685167 0.21404405 0.117552444 -0.014494734 0.4011031 0.03187837 0.4783041 0.053497236 -0.0074842973 0.223284 -0.04774567 -0.30944228 -0.092564054 -0.1896023 -0.12939739 0.22434571 -0.22962026 -0.40711498 0.04905695 -0.23683861 -0.57012117 -0.26611996 -0.6313414 0.17095737 0.29208994 0.29576465 -0.3308902 0.20783377 0.44243997 0.035886474 0.058892168 0.44830668 -0.18463731 -0.11222223 0.12634778 -0.40501994 -0.22677808 -0.4202924 0.0033032347 0.13703845 0.2205917 0.14544183 0.5360609 0.46871117 0.84509295 0.29375193 -0.0145941535 0.054451384 -0.067788966 0.2634836 -0.06167167 -0.62136286 -0.16967899 0.009711539
35 0.3062642 -0.17935215 0.46771416 0.018096592 -0.06830904 -0.17235763 0.21209642 0.1276493 -0.021660829 0.07447185 0.2905918 -0.2216332 -0.009406093 0.13241282 -0.13011163 0.21005258 -0.122361094 -0.24514183 -0.3709235 -0.2186617 -0.04883127 0.6434275 0.5124032 -0.30509943 0.27317673 0.5499437 -0.026560843 -0.12499519 -0.03941413 -0.2418703 -0.21082857 0.29383016 -0.45343855 -0.25666353 -0.054825693 0.031671897 -0.0724948 0.2990644 0.3584618 -0.069177516 -0.23490617 -0.3257039 0.103409074 -0.0007761994 0.272873 0.20914212 -0.17160045 -0.04049431 -0.15083973 0.5684571 -0.5231563 -0.047929786 -0.030874822 0.47797742 0.09510757 -0.1618061 -0.45927337 -0.63656247 -0.032408834 -0.14760429 0.29431838 -0.12630592 -0.071984164 -0.12132313
24 -0.0055449354 -0.5241485 -0.033508163 0.042935282 0.15237361 0.09075265 0.18994316 -0.11847854 -0.101671636 0.33057904 0.23167215 0.16441743 0.1357079 0.036211964 0.17513315 0.5560554 0.2698624 -0.15702799 -0.052945998 0.04061188 0.010181246 0.8160715 0.33377558 -0.20387964 0.41761422 0.35329014 -0.31112677 -0.15133697 -0.35132128 -0.2810436 -0.48775306 -0.20894553 -0.020637004 -0.27848053 -0.25338748 0.2625647 -0.024901504 0.46357277 0.70834017 -0.012893412 -0.13684884 -0.31310198 0.24385089 -0.3142094 0.033403393 0.3200658 0.40170532 0.14131202 -0.35774687 0.16633901 -0.26917183 0.11542997 0.3157066 0.32728913 -0.019922992 -0.037552 -0.0036595212 0.009806779 -0.13403057 0.17170413 -0.057096798 -0.35139117 -0.08542927 -0.3215653
23 0.02983885 -0.52390265 -0.011792944 0.13230063 0.12007407 0.081438765 0.104683645 -0.06526095 -0.09974999 0.3210977 0.14132744 0.15394247 0.14834593 -0.09300625 0.11168638 0.46726543 0.2437826 -0.028189214 -0.040245827 0.045677602 0.054794114 0.83860385 0.24452162 -0.12581232 0.38223663 0.29394972 -0.25074282 -0.23367773 -0.3934915 -0.29766753 -0.38053802 -0.34167746 0.027735634 -0.32310635 -0.2007356 0.26744854 0.0725549 0.489705 0.74541914 -0.10594169 -0.1600971 -0.3200174 0.1362404 -0.3023354 0.13507544 0.25641406 0.31391498 0.13046935 -0.36576158 0.24319862 -0.25560066 0.2106434 0.35942465 0.3885571 0.012197933 -0.098053895 -0.18126376 0.011006534 -0.088269934 0.22903386 -0.12139577 -0.2849052 -0.08087931 -0.34380847
44 0.56116194 0.3062021 0.23065004 0.23173629 -0.21974751 -0.18209583 0.09895581 0.5119099 0.14716843 -0.20189439 0.42863035 -0.60429543 0.23968555 0.068606175 0.16366093 0.29902214 -0.09412997 -0.3540046 -0.5207685 0.26939794 0.011710164 -0.054539282 0.6631732 -0.15401947 -0.2837332 -0.0055147647 0.36644697 -0.08080342 0.06615749 -0.017611764 -0.19753277 0.12951516 -0.7145288 -0.34954312 -0.36492905 -0.007367234 0.023970626 0.02729788 0.55708605 -0.08508821 -0.14799032 -0.08083651 -0.017638145 -0.4442521 0.07371587 0.01446357 -0.08417946 -0.0021493086 0.34263295 0.33088174 -0.40226793 -0.15757672 -0.34390068 0.8302015 0.7016915 -0.024901997 0.26396912 -0.06009469 0.029486377 -0.27261508 0.21000893 -0.12208407 0.32143712 0.022340693
10 0.13134846 -0.47122443 0.19172506 0.124424875 0.18806379 -0.5496467 0.18102169 0.032403335 -0.064641386 0.039888628 -0.027159182 0.108134456 0.401613 -0.107794486 0.43645683 0.24329473 0.23542005 0.14582786 0.28572923 0.38531867 0.25524727 0.29322594 0.106674284 0.23942778 0.0700777 0.16762288 -0.33103892 -0.057317585 0.22551112 -0.50904423 -0.37910056 -0.38608405 0.050711036 -0.20597586 -0.23552884 0.3396805 0.2997871 0.27078977 0.5053263 -0.0022022943 0.4164199 0.20671 0.027066482 -0.51714605 0.30597413 0.010798556 0.24184047 -0.12946843 0.24981843 0.18621086 0.15107183 0.3023806 0.34154284 0.15704167 0.2764378 0.51268834 0.21696024 0.14535022 -0.14058934 0.31797594 -0.12114581 -0.3384884 -0.3293196 0.003910176
22 0.08681381 -0.57042915 0.078321934 0.085227676 0.16744669 0.14315699 0.22803524 -0.036923833 -0.124383226 0.34044573 0.17662188 0.11166594 0.13683747 0.076320834 0.058629397 0.5576322 0.25760302 -0.018691303 -0.08026039 0.12203087 0.11360386 0.91448545 0.22758485 -0.18280262 0.32896647 0.34644547 -0.3765467 -0.21981145 -0.328925 -0.2402139 -0.41506878 -0.25442728 -0.071874835 -0.44121677 -0.17473502 0.33982635 -0.113224536 0.48074532 0.66422135 0.045128796 -0.13509588 -0.2849508 0.17082745 -0.40701342 0.14662687 0.18406455 0.29207686 0.15095219 -0.36631694 0.1962761 -0.13607162 0.17431252 0.27309904 0.28758568 -0.10357936 -0.13370177 -0.13589045 0.05469303 -0.09767941 0.21762656 -0.15634981 -0.23222844 -0.18965206 -0.318061
29 0.030366642 -0.5197143 0.008003596 0.17651217 0.09442188 0.1057393 0.28870648 -0.0819014 -0.15890938 0.27897945 0.1200179 0.11319084 0.02879271 0.004326385 0.20735295 0.54222554 0.15069342 -0.15074843 -0.02862002 0.13242887 0.08639171 0.8491134 0.23494197 -0.12990813 0.4090036 0.32387328 -0.24009511 -0.1374386 -0.3260521 -0.19803384 -0.42216787 -0.30727932 -0.044422645 -0.39902788 -0.19080809 0.21292563 0.01531651 0.58385956 0.6773815 -0.06804746 -0.19133975 -0.28420055 0.2670046 -0.2732316 0.1418131 0.28945282 0.3651847 0.08877895 -0.3776558 0.26485696 -0.1806878 0.17025375 0.3250733 0.3083128 -0.026465949 -0.06893833 -0.03487125 0.032728635 -0.06117345 0.102171175 -0.115890205 -0.34931684 -0.070879824 -0.34372023
28 -0.080856025 -0.49170396 -0.04249042 0.18131766 0.10406851 0.0434191 0.1886366 -0.07512128 -0.10277682 0.27798578 0.20492928 0.16335328 0.13132268 0.090441816 0.210562 0.4986549 0.16975014 -0.074158885 -0.02416289 0.047208995 0.061235663 0.7919607 0.35563946 -0.19152795 0.5033466 0.3126384 -0.21561027 -0.115579605 -0.34369996 -0.24590291 -0.34898216 -0.21002996 -0.0076670456 -0.4261415 -0.20560895 0.3222284 0.019876491 0.49875972 0.6756446 -0.07559689 -0.19231395 -0.24812856 0.24071251 -0.35447335 0.03985726 0.2832763 0.3012742 0.077816635 -0.2230445 0.26698783 -0.18603256 0.23099506 0.35755154 0.29539317 -0.033745695 -0.014279672 -0.094189696 0.088481 -0.09706382 0.21627608 -0.11718199 -0.33134764 -0.1198768 -0.28047627
30 0.32905284 -0.23196954 0.4157547 -0.069929674 -0.04004978 -0.190895 0.19257982 0.030279625 0.0130858375 0.10321046 0.20127827 -0.21326442 -0.037912607 0.03929205 -0.13592304 0.2685368 -0.112573035 -0.28418556 -0.3409657 -0.18294999 0.05341678 0.6281741 0.58404106 -0.37472665 0.20474243 0.44068137 -0.1285673 -0.10390891 -0.018049646 -0.20966397 -0.2285496 0.3861803 -0.41127566 -0.09288342 -0.09465631 0.07305957 0.016356224 0.34110212 0.40937608 -0.11626372 -0.19418648 -0.33018303 0.11071919 0.034300085 0.2379094 0.22525649 -0.06626007 -0.1357306 -0.20146771 0.5261572 -0.5788844 -0.12071683 -0.07272205 0.47331345 0.14855745 -0.11757833 -0.4044903 -0.5503565 -0.14829077 -0.25984278 0.2750397 -0.08207569 0.028187772 -0.027312892
48 0.5629201 0.27726272 0.34237504 0.28071037 -0.13713999 -0.098587416 0.1573799 0.56105274 0.16180353 -0.24284963 0.36442137 -0.6167474 0.103312045 0.19065125 0.08349683 0.28993547 -0.16382703 -0.33201146 -0.5058751 0.2802806 0.17107566 -0.039082743 0.5599365 -0.16310716 -0.32514885 0.081883706 0.43002963 -0.050547175 -0.057836313 -0.1122108 -0.2016003 -0.09611084 -0.62533486 -0.3275835 -0.38030514 0.011754928 -0.013244475 0.13836356 0.4493898 -0.08771473 -0.18196028 0.06573354 -0.0649037 -0.42751023 0.18026872 0.008260097 -0.14399281 -0.005784967 0.26442787 0.20494851 -0.47731486 -0.17527731 -0.2370353 0.8275868 0.8056843 -0.14436024 0.17020248 -0.10695863 0.007438929 -0.34622774 0.18171926 -0.048447814 0.26357132 -0.08164644
3 0.27778724 -0.12668513 0.4418045 -0.28229037 -0.06452657 -0.7477196 -0.08236801 0.3274343 -0.31653413 -0.2228132 0.12513508 0.25514117 0.09315287 -0.09479605 0.40890095 -0.011116248 0.516312 -0.0032396228 -0.019462826 0.175454 -0.03522553 -0.28114346 -0.11733844 -0.07369987 -0.23192173 0.3055798 -0.23426516 -0.501554 0.037166476 -0.2484537 -0.51025605 -0.3236191 -0.65620106 0.15828992 0.23506689 0.19978243 -0.31229332 0.13584912 0.53593135 -0.07017606 0.0706233 0.46295908 -0.19297968 -0.031235734 0.15692659 -0.5647423 -0.15215153 -0.4178869 -0.07387987 0.15140599 0.25960377 0.036638938 0.52890754 0.50086075 0.7999037 0.24624635 -0.04346257 0.047743425 -0.031316932 0.2110566 -0.032115612 -0.5943587 -0.23369731 0.10276832
37 0.37273538 -0.13941589 0.46690956 0.018387701 -0.1721499 -0.14238709 0.27817112 0.063985676 -0.06383053 0.0633176 0.31725785 -0.2141591 0.013122569 0.120465174 -0.057354856 0.19859691 -0.09213886 -0.3538363 -0.32275167 -0.19377789 -0.10469105 0.6106263 0.6517385 -0.33179474 0.35036796 0.60311866 -0.07099079 -0.12442111 -0.08764724 -0.25610438 -0.25303385 0.36539027 -0.52414453 -0.23846981 -0.09009217 0.0079490915 -0.15234381 0.34752074 0.2849529 -0.120499104 -0.15771578 -0.25135896 0.014497696 -0.03530382 0.1940109 0.14146416 -0.17368151 -0.061258983 -0.22242473 0.5565958 -0.44908997 -0.07456098 -0.08915811 0.49358508 0.11015489 -0.14069231 -0.41623268 -0.66945523 -0.05732247 -0.1380924 0.24175088 -0.058556654 0.050406486 -0.037530787
17 0.088942535 -0.45000336 0.16434142 0.14138894 0.09817496 -0.5646912 0.20865384 0.02606914 -0.043080334 0.020289665 0.0717419 0.16315562 0.37081125 -0.21570382 0.4734104 0.28184804 0.2636791 0.084614515 0.27999625 0.5026514 0.21419562 0.3209668 0.07130772 0.1938692 0.0721001 0.0807439 -0.3592961 -0.073771626 0.15389377 -0.3992722 -0.31628487 -0.36940664 -0.04052121 -0.24616899 -0.24984229 0.36633715 0.3420136 0.2698633 0.5931083 -0.010523504 0.34208596 0.25675622 0.07105905 -0.5075201 0.3021997 -0.017653057 0.21560659 -0.13021605 0.24474147 0.17609048 0.15047261 0.31211367 0.33198336 0.15112594 0.2935782 0.52277863 0.2128066 0.25216705 -0.13056783 0.33714536 -0.19764668 -0.2899144 -0.29721972 0.06856266
39 0.27567968 -0.20991817 0.31294522 -0.040814683 0.038967676 -0.1146693 0.1990656 -0.043758538 -0.016498478 0.09102149 0.34417447 -0.26627544 0.05454984 0.07003315 -0.03687208 0.30274683 -0.031015385 -0.38238725 -0.3440105 -0.22150373 -0.20171075 0.5486531 0.63705534 -0.36176494 0.32955843 0.5320181 -0.014289973 -0.13685182 -0.09588522 -0.22551607 -0.24133387 0.40135625 -0.53409976 -0.24231343 -0.17124991 0.04617446 -0.122798234 0.27738973 0.40920433 -0.12053499 -0.19673803 -0.31313702 0.14303656 0.028110558 0.1574848 0.24825643 -0.09960783 -0.10728808 -0.14938715 0.45752683 -0.5134475 -0.1237412 -0.031802863 0.4451247 0.12273569 -0.11501967 -0.37511155 -0.6445969 -0.14954455 -0.10017042 0.308114 -0.1365478 0.018479751 -0.047261663
13 0.20351991 -0.46058315 0.27450484 0.122402646 0.12579456 -0.5434788 0.21519859 -0.046582755 -0.018015806 -0.12666318 -0.04739203 0.19297455 0.3682628 -0.16179265 0.51562 0.29143134 0.22133599 0.004421774 0.19804217 0.31321058 0.33006868 0.34170437 0.11199776 0.23796879 0.06382203 0.11352822 -0.30364627 -0.1509183 0.099572256 -0.44574624 -0.29556215 -0.4645246 0.05588843 -0.17508231 -0.31736988 0.23168956 0.42365718 0.24261227 0.6493163 -0.12056771 0.35978827 0.23778906 0.03181327 -0.43802917 0.21507338 -0.075764745 0.30926573 -0.150091 0.22473612 0.11107213 0.06515299 0.27981994 0.39276776 0.14229031 0.28792086 0.5830563 0.2905449 0.26246873 -0.21222164 0.2856691 -0.13649468 -0.40754342 -0.37816477 0.093572475
33 0.3234533 -0.19444717 0.5011131 0.019499578 -0.113429144 -0.18978553 0.30105576 0.04538308 0.02703238 0.1565541 0.27778476 -0.21066177 -0.03691221 0.10041342 -0.0923205 0.2950466 -0.011570926 -0.3541628 -0.4340542 -0.096735306 -0.101926245 0.6486162 0.53631395 -0.35345843 0.28266862 0.54242057 -0.06950617 -0.09501759 -0.05205987 -0.28998336 -0.26581275 0.32921174 -0.52525425 -0.17415556 -0.17800201 0.001828899 -0.10993585 0.3010252 0.29874 -0.012015198 -0.15207718 -0.24042095 0.15213215 0.017499074 0.26836044 0.14990427 -0.24120635 -0.10167156 -0.16794746 0.44190356 -0.5025245 -0.13968122 -0.08907971 0.4609373 0.09245564 -0.13975629 -0.48818272 -0.6459418 -0.09783116 -0.13451847 0.23259851 0.0028836264 -0.03439582 0.016325444
